-2.006012460352885607e-01
-9.924858190439214689e-02
-1.632998441582087512e+00
-5.410744517735521786e-01
2.196058778706204140e-01
3.577439528348870801e-01
-1.447205746933798443e-01
1.063032548795160293e-01
8.075674311097453817e-01
-1.807483581212409596e-01
-3.057707709581320987e-01
1.595953040848520632e-01
2.096289895246332413e-01
2.051464333119493721e-01
2.662173961332384153e-01
-5.050058912247236131e-01
-5.484962675340127047e-01
-1.078090394571752653e-01
-8.023354337954949900e-01
2.611917510666936226e-01
4.098834142899330235e-01
1.058808775885109743e-01
3.536223597116712747e-01
-5.375024529171458232e-01
-5.509578765287024282e-01
-6.695254813114300818e-01
-2.519548987507688187e-01
-1.264629273267698917e-01
-4.218184726247649619e-01
-1.006679997048762210e-01
-2.640967163238500115e-02
-5.988334067968836827e-01
-1.167542507004745156e+00
-6.355042117217046815e-01
4.525407431523472135e-01
-2.862337871520186372e-01
-3.033763575601892137e-01
-7.235930093767451998e-01
-6.004962560383230175e-01
7.281995410431023608e-01
1.259148355692785604e+00
2.484134690331051276e-01
5.206911317528603589e-02
-3.085852693775527067e-01
-8.300388963682822085e-01
-1.401433393319141685e-01
-1.637675523519852572e-01
-5.062329923145660882e-01
1.663955316992962175e-01
3.136797658456242921e-01
6.520630656501691380e-01
1.043952000896265636e-01
-3.982493927942312717e-01
-1.164076157724747568e-01
-8.316177888106437988e-02
-3.189939381151223885e-01
4.448896592699763675e-01
-4.345028177093220867e-01
-2.133024987502161740e-01
7.290174793063323166e-01
-2.555929160837835945e-02
-5.575181083223792466e-01
-3.352575677926420972e-01
2.185179457796451730e-01
-2.232981426486058130e-01
-7.407658339798861569e-01
-4.566398229029040579e-01
-1.468966885215236551e-01
-2.162729246682414952e-01
-3.793035162630029045e-01
-6.937452907569875427e-01
-1.981517981968348718e-01
-1.241271040485435462e-01
3.818141207064659204e-01
-3.258083871044883950e-03
6.315994996301999009e-02
1.360109561607479312e-01
8.397347563459697795e-02
-2.775140241082317549e-02
4.274487331116649247e-01
