6.597273080182189386e-02
2.959626590706434524e-01
4.723129910103970319e-01
2.781795792896362696e-01
-3.214002396501710601e-01
5.352882312277422727e-01
2.445056962789118049e-01
5.599647848221686042e-01
-9.460782382594457030e-02
-5.503377050924908032e-01
-5.520870837687930077e-03
-1.166144533899089314e-01
-1.162091712561768464e+00
-4.208616696648127542e-01
-7.705223178852986798e-01
-4.482555005693817929e-01
2.299362396069506154e-01
-6.467459890195912386e-01
9.923529032751783330e-01
-3.020853938059179372e-02
2.376225291085519165e-01
4.629223441990132359e-01
1.577132731218369166e+00
8.516813945676544595e-01
5.448503892772051937e-01
-3.807212545911875523e-01
-6.088191424213731939e-02
-1.978173913302710141e-01
4.298851699554129269e-01
3.503500780398672299e-01
-9.001170821750917872e-01
-9.777690034876992953e-02
-7.616734045011580578e-01
-3.809326838779514834e-01
1.370002922114087196e-01
4.611904294616929190e-01
-7.381911856023942731e-02
2.731953839479480117e-01
-4.349301777756769405e-01
4.131218770735324286e-01
-4.895912275032525685e-01
6.010778495199834426e-01
4.950169413368143978e-01
2.661470222815757181e-01
6.301115256823258681e-01
-2.900746724913277896e-01
-1.026267456860062710e+00
-3.728008527367815406e-02
-7.782311463078228631e-01
-7.193415830171350223e-01
-1.228849211111976564e-01
-1.282414157836469226e-01
2.274335115542564234e-01
-8.360631592570131332e-01
-3.688460814029379531e-01
5.412291422147011977e-01
-3.231906888032515246e-01
6.396791574652805901e-01
-1.895132294851459287e-02
-3.513255538545324574e-01
-4.892122962357348670e-01
3.782835618419846946e-01
-1.462181637979071969e+00
1.075195729044316817e+00
-5.659172023790373096e-01
-3.968106625649547858e-02
5.838433857455875564e-02
-6.921046520072500485e-02
1.035472710316428235e-01
3.237913492328455267e-01
