2.946259922140299081e-01
-3.810336143915666884e-01
-1.053085454360629114e-02
5.023515555602878768e-01
-5.168608860587056708e-02
-6.959089849887113433e-01
2.768003045583006250e-02
4.158794673127572672e-01
-2.552762065300683003e-02
1.322319632613593032e-02
1.680218351027253643e-01
-2.667035741140513228e-01
-2.759956124103532527e-01
-8.630284239649400613e-01
8.534238832516682915e-02
-7.235483218245039039e-01
-1.976324438326624577e-01
1.337441284302723243e+00
3.863825478804387425e-01
1.288515800915289944e+00
1.295341952778194639e+00
-1.051836632400797999e-01
-8.185375310351544753e-03
-1.186173583836311884e-01
-5.596794774864261024e-01
7.403750326195202014e-01
-1.172790396999155715e-01
1.934874863972870507e-01
1.704237306275900865e-01
2.819948146540945388e-01
-7.525508700029201470e-02
5.321610613610372464e-01
4.060400720375740846e-01
3.699538016216759595e-01
-3.486553607309278990e-01
3.735471025638523179e-01
2.061397200919869166e-01
4.998500395329612545e-01
-7.980971615843404088e-01
-4.504304905366101480e-02
-6.042596679356815326e-01
2.528255107481237052e-01
-1.132139308475172967e+00
3.057770853734101957e-01
-5.483210137345149171e-01
-3.017687025816114810e-01
-6.369375850033776043e-01
-8.401524649859493099e-01
9.601346171784691519e-01
6.310190496143455174e-01
-7.277926340445656228e-02
-2.690658287287303052e-01
5.271127316311138289e-01
3.808321729757624952e-01
5.165719053001607275e-01
-5.681285997098806106e-02
3.724304104111534341e-01
-6.527326696993049904e-01
-3.250894859420003224e-02
6.025861554229184902e-01
7.700898021350517375e-01
-1.373024447758066646e+00
9.830028250849706661e-03
-1.316843922557799362e-01
3.420679786697038149e-02
-1.319156287760759327e-01
-3.891631445680771018e-01
-4.567938634195553571e-01
8.144291054281350695e-01
2.417985242545184210e-02
2.178701064211846228e-01
1.223349913008880963e-01
-4.533154056994053160e-01
1.185095223495828964e-01
-4.396872344972140856e-01
7.235000752437098503e-01
6.000562490736111032e-01
2.500955398821536058e-01
3.737022107641542190e-01
-1.146206742546083956e-01
