-4.515415685792972256e-01
-9.925292383002390917e-01
2.520843943555570177e-02
1.866764740845749115e-01
-6.812216394033047129e-01
-1.860743303416838024e-01
-5.945763530591668955e-01
-2.303865612931418547e-02
3.098337112060477183e-02
4.603073374246448024e-01
-2.971938554650828679e-01
-3.292878697758204742e-01
1.861377686142525467e-01
3.259312121587606970e-01
3.756806033733793848e-01
1.841267971922014302e-01
3.046275748015725079e-02
5.020890902049899296e-01
-1.041348478958761259e+00
3.184731920571391706e-02
1.122472533255517444e-03
1.997680223661710552e-01
5.159234215564377779e-01
6.838630661885521933e-01
8.876996117183284518e-01
-1.159380008016331620e-01
-6.291152668443632523e-01
-6.327716792559377745e-02
8.562830621998079872e-01
7.875245891658689823e-01
-5.043339866587874809e-01
1.262717491876353404e-01
-2.262667352921352293e-01
-1.193151581550744855e-01
-9.277131525618494967e-01
-3.989357093579800617e-01
-3.863582634574711516e-01
-5.920283624036052350e-01
5.681290737779150918e-02
3.925106121617503718e-01
-1.719280077919981276e-01
-1.502222639534754600e-01
3.203610589164913591e-01
-3.917525388709441336e-01
5.576113882328257443e-01
7.924879866723358313e-02
-4.552178082091347666e-01
3.506835718958918879e-01
6.242215499782207688e-01
5.796236071136546819e-01
-1.428416081638285429e-02
2.801640801199426489e-01
-5.985471099908172832e-01
1.430350808865305634e+00
-1.101564697024340067e-01
2.714406081980444418e-01
4.538658553199820811e-01
3.353225168178001203e-01
-9.601287098130873998e-01
3.496024125764071733e-01
2.553478120658842290e-02
3.429695074990459225e-01
5.223257681106024952e-01
-1.862927594191621239e-01
1.750569448190561206e-01
-9.764390725393737869e-01
1.261180603318106663e-01
-7.346250281010793248e-01
-3.728019624525601983e-01
9.378577338382156070e-02
