2.045947164883881175e-01
-5.238608827352813080e-01
2.100409082182833620e-01
-4.960264366815412274e-01
9.780878301719914125e-02
4.574978670165145145e-01
2.812298257842351656e-01
-7.146806480618265178e-01
7.585824473501446841e-01
1.272868101555184595e-01
-2.540381988069838060e-01
2.624378170752015293e-01
1.596905023912240096e-02
-6.974336381716907951e-01
-8.390562489356089282e-01
4.256591561080985686e-02
-4.739596857102330585e-01
5.228570930191624999e-01
-8.737392120301094023e-01
-3.927882936641540756e-01
1.157613567207926852e+00
1.509371377594648234e+00
-1.543747119268468193e-01
6.866349383920977711e-01
-3.099867388477825503e-01
2.463947296710646828e-01
5.868599123003610529e-01
-7.040599419559352423e-01
5.159970027812095239e-01
2.125872762300352603e-01
-8.997356071178134185e-01
8.216845800088989904e-01
-2.640943590567322585e-02
1.354023367024294877e-01
-5.686547157335140046e-01
6.251704772256414522e-01
-8.221606322279061407e-01
-9.667351183945711579e-01
-6.397056831969333279e-01
2.926074054916452671e-01
4.132519305673106880e-01
3.807271218576995242e-01
-3.612226469099624748e-01
-1.415954139310175552e+00
1.323733204203113301e-01
-4.146139035168506792e-01
6.384606146171739605e-01
-5.007198361819030774e-01
9.066470134527178093e-01
4.407564977181072652e-01
4.346920499975270857e-01
-1.034486821446701788e-01
3.138613658994082178e-01
-8.043979216621837125e-01
-3.780557989579567263e-02
6.880581109452589272e-01
1.282046296323251955e+00
-5.120249449184766100e-01
7.129862442630812147e-01
-7.985760966842826714e-02
5.970955053096607679e-02
1.149206041033686565e-01
1.034739463430954576e+00
1.630908547895885796e+00
-4.786677807048403954e-01
-2.962710200253374504e-01
-6.577048157462228595e-01
-1.331114677373999508e-02
5.163846661813826788e-01
-2.375148656552862336e-01
-9.344764822011832894e-01
1.657196513088621259e-02
-1.512651435208202944e-01
6.302164371530432074e-01
1.429846984228583806e-01
8.062329212061251082e-01
3.081710629653297562e-01
1.367716891967615256e-01
1.178459139005012812e-01
-8.415829016368977511e-01
