1.019119757850570074e-02
-7.281073326972208326e-01
-1.694807343377575659e-01
-1.157954006910545397e-01
-2.283977931998618094e-02
-4.444334312486318828e-01
4.336515744038875186e-01
-8.618574168154005122e-01
-1.001021183094943368e+00
9.357897714965783820e-01
-3.043391361023302100e-01
-5.032150850046365198e-01
6.542577678595293267e-02
-4.973800718980608826e-01
-3.442365162333493322e-01
3.167026425990706606e-01
1.083712115549033406e-02
-7.210513878337337923e-02
-3.464127888283657364e-01
-5.160666802372344542e-01
9.698882659615463975e-02
2.663445720301902964e-01
6.468034878137307597e-01
-2.023302268494191203e-02
-5.064950774370250430e-01
-1.233881568427640935e-01
-5.806208789900719758e-01
-2.914905005832382073e-02
1.161607346568816590e+00
-1.821840591123555508e-01
-4.306526781923663005e-01
1.317072757407593553e-01
-1.663255173460533309e-01
-1.890601883922111148e-01
4.895960625722473730e-02
-5.571715169678425061e-01
-2.095212379016435644e-01
9.103186950687039980e-01
2.033530364494694487e-01
-6.963065514328619088e-01
1.427016291478077140e-02
-1.494506597449068108e+00
-1.128594272578920810e-01
3.903961276704873140e-01
8.084801669404585445e-01
-2.668141957353570848e-01
-2.439361704692784572e-01
-6.624393112855758714e-02
-9.060093023771320642e-01
7.290817482421295681e-01
3.392518027117891743e-01
-6.045950298487652308e-01
2.262791348300357552e-01
1.195688324428362925e+00
7.461822277922343372e-02
-2.019163416293599522e-01
2.868808931464312262e-01
-2.058944832317375628e-01
1.141212758041500352e+00
-3.671103635049760006e-01
2.391767809539002698e-01
-4.651856195792748450e-01
6.669488137651912174e-01
-8.781537925403338773e-01
9.178113123836940945e-02
-6.927943380985007726e-01
2.623947091376261920e-01
-2.035926238896796081e-01
-3.348947731462012523e-01
-2.875065536547901507e-02
1.527203418068971419e-01
5.189908359408080818e-01
1.115093313805254893e-01
6.056081776389868887e-01
-1.555641942798150212e-01
8.042823887196150212e-02
-6.788150760156062835e-02
1.887760120701802435e-01
2.524842529812366121e-01
1.622306885484225136e-01
