-1.081531985646631000e+00
-3.352891024036301904e-01
-4.526225966045316351e-02
-5.570910966038342682e-01
-4.725332575799376933e-01
4.442834153541770359e-01
-1.882338060419671277e-01
2.026251273056908220e-01
2.399861060501997101e-01
4.976144351189304427e-02
5.866315707852757244e-01
2.092385159063173961e-01
4.553581678049689607e-01
4.257732798564152210e-01
-8.953289557193236936e-01
1.984954493081544924e-03
-7.142196578969863818e-01
-5.069326179718679493e-01
-5.927246257308139699e-01
-7.868707219830331501e-02
4.426484967906798573e-01
-3.751013627514361848e-01
3.968444367824888186e-01
-9.595635057386955324e-01
-6.869604750842750462e-03
4.947172801001598064e-03
7.206330801136294761e-01
-6.899968471964237904e-02
1.045441169101671564e-01
9.126830056408261616e-01
2.171173609006851746e-01
-5.519281875225429124e-01
1.860661976626913627e-01
-7.641186836105651192e-01
-3.283178060385979480e-01
-2.976948957426304165e-01
-1.037924072113240864e-02
2.405025006971463764e-01
-7.815750568338476478e-01
-1.010422026327773892e+00
-5.190718350950911386e-01
6.022433258284459745e-01
3.460012042544000632e-01
5.083418510692210290e-01
-9.299494924322442291e-01
5.090533242881082332e-01
1.348248462736662545e-01
1.434196318310380636e-01
1.584472831096175593e-01
1.647176100084609685e-01
1.322769633126277933e+00
-1.733733306229573445e-01
-1.418723860823755123e-01
1.718816898629754453e-01
8.782157617623238544e-01
2.573042737379775957e-01
-1.351505801667771678e-01
-3.750016543973402894e-02
-3.484030885277559220e-01
1.162659194364614068e+00
-3.305940266811509542e-01
-6.204142219573197670e-01
-4.217837660074832407e-01
-3.040492823568342606e-01
-2.187594546906551363e-01
-4.535883644916635093e-01
-8.321684378844782515e-01
2.525818150862029210e-01
-9.428075610167291343e-01
-3.059491994186918640e-01
-7.046270335622095704e-01
-3.195322396283709621e-01
-8.222496305140055695e-01
6.866626946406249044e-01
4.391840579004508416e-01
4.097921886297865579e-01
1.621519810850376442e-01
3.601896491705491865e-02
5.382251692207805638e-01
-5.569550362363676066e-02
