-1.068174519292413249e+00
-3.008909032044377874e-01
5.863292607912109489e-01
8.087305863472427081e-01
-4.769125615645781746e-01
2.286845925277370128e-01
-3.783488676194224354e-01
6.258503058966350396e-01
3.288862649597775745e-01
2.951731760152204731e-01
-3.080373419835350512e-01
-3.236679804953416228e-01
4.328993456747421975e-01
-6.223548665783615319e-02
-9.538335161630259185e-01
-1.067943134665340077e+00
7.199367440549220287e-01
-7.378993179757317722e-02
2.756679794587278964e-01
5.078358842341910151e-01
1.038242404559325816e-01
-3.089879176365529778e-01
-8.284670791660829481e-02
-2.741329721371340566e-01
-6.102640493841878649e-02
5.335339189043777353e-01
5.201861761350985436e-01
-1.533083464849517019e-01
-1.424713239517962082e-01
-7.315327091489124411e-01
1.035461075570845768e+00
-1.136990209368815563e-02
1.477950274871575598e-04
-2.553970345943656906e-01
-1.338992572787083057e+00
3.434135436290615129e-01
-3.407141505323749708e-01
6.562033753918017354e-01
4.952040718806843822e-02
-4.140277192500423364e-01
-4.667438845147816595e-01
-8.096583453987223067e-02
-4.122761359688458804e-01
1.186489083483768248e-01
1.072536170709610936e-01
-5.296841286658664494e-01
7.388316752990746472e-02
3.909270447989263153e-02
5.824046063529287470e-02
-8.331118780973331139e-01
1.114630905081158418e-01
-1.035235235480018057e+00
9.190032120736766341e-01
1.437005577807424495e-01
-5.651505512407997145e-01
-2.123605241122147547e+00
1.074965470917958188e-01
-2.657705561659851057e-01
-2.880946404490944968e-01
-2.416508619616393738e-01
2.720617890834564623e-01
2.779355199515038954e-01
-3.756542397968173352e-01
2.778828093769820651e-01
1.041896165748331105e-01
2.328333524178420322e-01
1.130075151596573180e-01
-7.279006843456625742e-01
-3.573716423010971921e-01
6.410165800588035756e-01
-1.416551602438921309e+00
2.318777294845958126e-01
-1.063095990718578854e-01
1.226705952007217659e+00
-1.011039251967109087e-01
8.203432123988861902e-01
2.018873920316978376e-01
3.192212300839555317e-01
2.448177347448274588e-01
-9.950944175064326824e-01
