6.584732917749391845e-01
-2.955830576497342488e-01
3.823727220321043382e-03
4.358737715661065160e-02
3.258877759398567941e-02
4.386847575154717571e-02
2.094536668765691889e-01
-2.179488079196338912e-01
-2.962875825604853741e-01
-1.849608595564184998e-01
1.648157498352292860e-01
2.332426499003967257e-01
-9.324595066131474708e-01
5.360183644998683938e-01
-2.660301479673783387e-01
3.106025606383208126e-01
5.859624879500738848e-01
-2.184960184414159456e-01
2.986871823019313643e-01
-1.675800537147375646e+00
-1.217350993609410126e-01
-3.662629755115092145e-01
6.847895771619576522e-01
1.846107338521890684e-02
-2.208206146623600263e-01
-5.754072125081433065e-01
6.789565065590069670e-02
-1.722106331718000205e-01
2.933128215047158260e-01
1.167386578425678056e+00
7.265351626640382809e-01
4.314124535186312226e-01
-1.247398604445543874e-01
-3.313262278404165428e-01
3.313615427550442583e-02
8.175654563486894899e-02
4.369935454308160883e-01
-5.241377829324342930e-01
-3.817357045339536681e-01
8.391907545002509627e-02
4.936872500691886767e-01
8.019818236010076706e-01
-2.761190802500297359e-01
-5.083399800526863244e-01
7.726893029539643187e-01
2.227342985978705558e-01
2.262409644002176534e-01
7.269962038492597811e-01
-2.650930783891553705e-02
-5.048373504866923711e-02
-1.179742261541219861e+00
-4.581324392872531681e-01
-1.131013964349299183e-01
4.096728914368996666e-01
1.093672638336903091e+00
1.271105829746260074e+00
5.718836411400913811e-01
2.876558113390456084e-01
3.796439375626605162e-01
-8.848870022722714612e-01
-8.172597101701890576e-01
-3.561283874686873019e-01
2.226758818463224210e-01
1.290153692386445394e-01
3.167032196256395343e-02
8.473553412721382405e-02
-7.072004885559217691e-01
8.054614288536543487e-01
-1.079273643052208742e-02
9.395533717329389578e-01
-1.479658950132612671e-01
-1.169398623637607770e-01
-2.363905295788864824e-01
7.146845582514600448e-01
1.362563128413989411e-01
-5.746534077960697290e-02
-1.247356384861001699e-01
2.589571089107624013e-01
-4.307365993284144046e-01
-9.478222095383459500e-03
