4.614965368655988831e-01
-1.437877951793870013e-01
1.808371174104919654e-01
-1.594077053364178764e-01
6.487589802236917724e-02
9.056703166711753683e-01
6.376686988406026213e-01
-1.363659177086748442e-02
2.345209083385265125e-01
7.436274219727785628e-02
-9.940327273981405254e-01
4.425036966829756779e-01
8.059370822199065643e-01
5.307947926434486430e-02
-5.450503329065421454e-01
4.859398652737397795e-01
1.797987237557034657e-01
-2.396264574117847324e-01
4.796187940295390528e-01
-7.130027655336743653e-01
-4.097208100117287199e-01
-2.230890256881674916e-01
-4.275358555813597028e-01
6.696476201352332680e-01
-7.770615798503140992e-01
-1.192968690540876509e-01
-2.200258004109014454e-01
7.140568493417287499e-01
1.017580200599845774e-01
4.848224209429904952e-01
-7.347629639258692613e-01
3.803721706871103780e-01
-8.914823916557270689e-01
-4.232503149210727900e-01
-4.767616714414213419e-02
-5.666021319760372599e-02
-3.302755491710121505e-02
9.522581578776689870e-01
4.354020995827804774e-01
-1.992259343088287060e-01
1.313505279502574508e-01
2.681591593672535412e-01
6.340760567821868143e-02
2.857774509597523216e-01
7.132097842901483631e-01
-5.635208095352405300e-01
-6.620410529185123405e-01
-2.130530485884578884e-01
-8.646098451412900232e-01
-3.661547921574494491e-01
6.705039073303953323e-02
-4.732516015962840994e-01
-1.019758616944116625e+00
-3.010041776303191974e-02
-1.079539744767069820e+00
4.081307220891972065e-01
3.250980470913474862e-01
-1.035482603387112066e+00
3.173936821274414566e-01
1.586114548832597282e-01
-3.855044825524257118e-02
-4.229749205733611128e-01
-3.566360339393073176e-01
1.330361198867625605e-01
5.229549258848142923e-01
-7.625204815241284351e-01
8.662077362268927327e-02
2.430661586070230196e-01
-1.429518152842360890e-01
-4.301263642960717615e-02
-1.440935394229345967e-01
9.907257040482184696e-01
-1.201580531800569007e-01
3.160373925115126381e-01
2.053511858999609307e-01
3.238338045709635571e-01
1.333023134150580491e-01
-6.038248179208668964e-02
1.781981960575347301e-01
9.928009549301006764e-01
