-1.780732359412525168e-01
4.242242411724692075e-02
9.874613506264355856e-01
-1.743705461820399261e-01
-2.042905765384379901e-01
8.444559704151304302e-01
6.102035396273952639e-01
-3.952420138058038712e-01
-4.431738229501227533e-01
-6.068199316396458709e-01
-1.976424555139865147e-01
2.166736693234515287e-02
1.175710048773866562e-01
-1.013156310307884445e-01
-6.472739239853586568e-01
6.826266752916957392e-01
-5.995911146728097885e-01
7.725997108652833401e-01
-5.407818441650011909e-01
1.228440357512616821e-01
7.914968048880250961e-01
2.901587397519020950e-01
-4.841994786816230523e-01
1.109858514736482560e-01
3.592241673349755304e-01
5.121033004199712080e-01
-4.145130254066103914e-01
-2.472488306213044829e-01
6.365898632399759061e-01
1.874282476668586161e-01
-1.022204475363498233e+00
6.944983255986370008e-01
1.309154340812859474e-01
2.431916079967506583e-01
-9.763349538333147004e-01
-5.033306141448362636e-02
-2.111429834218270685e+00
-1.085990623961727408e+00
-1.636339603905838214e+00
6.454296862507469257e-02
2.575468613100448390e-01
-7.431557066338989603e-02
-2.386619121136889787e-01
-1.111500696086082707e+00
8.894722822703118870e-02
-8.424331686146593334e-01
7.863570248725879619e-01
-7.984562591964046163e-01
7.655605371763716249e-01
1.338939888887711038e-01
2.475828110910741620e-01
5.363423122044481683e-01
-1.663086494302307428e-01
-5.405931350999756413e-01
-2.768955174803852115e-01
8.526095888564259040e-01
-3.027610017902319095e-01
1.634235577077786106e-02
3.527715365139204584e-01
6.149115300389300653e-01
2.666331596560597705e-01
3.425557041190335217e-01
6.793644204643450868e-01
5.147488407867832905e-01
5.046385259357019093e-01
-2.023024410739265588e-01
-3.907329553916987774e-01
-1.093873387386394558e-02
3.280889388955912089e-01
-1.615495305232351186e-01
-6.135241387032761562e-01
2.423041620998545864e-01
-1.892755959232332308e-01
1.131177670770842525e+00
5.171416137543030089e-01
5.446641433489629591e-01
3.006316059250868644e-01
2.106743064673418098e-01
2.848180009748536023e-01
-1.669664201883001908e+00
