-2.014498755103275585e-01
-3.422738802900102684e-01
4.338963767490164880e-01
1.845791254869781906e-01
-1.281984679804734628e-02
-6.754206098910429112e-01
-4.564048237721237133e-01
3.360744354047892624e-01
3.467255035440261479e-02
-7.118200040030708831e-01
4.353067064346096693e-01
1.245535609899460355e-01
4.127684481734875122e-01
3.941555751668100460e-01
-1.620429598209262578e-01
-3.580241413907055970e-01
-6.383459566371552096e-01
2.510641228410054882e-01
5.088632074315776466e-01
-1.562880180124427421e-01
-4.247517149567803241e-01
-1.910325428834843686e-01
1.177996689633100669e-01
-3.091619338335596656e-01
6.437881345394350641e-01
-1.912396171996028627e-01
2.785466278132126688e-02
-1.697544279565919578e-01
-4.753332823953775876e-01
7.390603237623402100e-01
-2.686851491032412054e-01
4.635714297739622070e-01
2.186533936898955865e-01
4.825829199609038556e-02
7.645807495274348220e-01
7.130833934211221470e-01
2.712698322415497132e-01
5.392427126618084543e-01
-7.962480177698575412e-01
2.754115707777641392e-02
-3.593223371646315778e-01
9.252093195088085809e-01
-4.366232015345901663e-01
2.774776245824102094e-01
-5.962218393438561970e-02
7.946396833418480909e-01
3.023618688076378236e-01
5.411000340656009211e-01
2.213670773012199611e-01
1.829794710462445406e-01
-3.949969492106419899e-02
2.262211635872414806e-01
1.846220518612830264e-01
7.636389989320624405e-01
-1.847589329645435152e-01
-1.538432375527756801e-01
-8.230456001020127754e-01
-4.718502083801871527e-01
5.721645909084942527e-01
2.246860410614803238e-01
1.535054810722540353e-01
6.570480053470255655e-01
1.177261992578279237e+00
-7.990449069983508734e-02
-3.946471378671516095e-01
8.000387318337007225e-02
-3.616623222697946116e-01
3.050022852639796000e-01
2.054362384591839896e-01
1.436724874915332184e-01
1.262850320544714189e-01
-1.863240634213011893e+00
-1.711592334580902541e-03
4.238637031591009352e-01
2.336539533808131841e-01
1.457495264697675208e-01
-4.562674105884101383e-02
1.427530859710953587e-02
1.654182919202132340e-01
1.092577618076185503e-01
