1.984780190306860426e-01
9.960881613343586238e-02
-4.416702499383524660e-01
-5.783292415717825596e-01
-1.653237994478706563e+00
3.806513827642014625e-01
1.291672481399837591e-01
-3.638643815361404799e-01
2.272883352978818938e-02
7.170234291804973292e-01
1.079935718837639058e+00
5.161406092978735316e-01
-4.055710133586247768e-01
6.819560500447199303e-01
4.024766131994512719e-01
1.484926845882402979e+00
-2.108219044966565814e-01
5.406120425442376143e-03
-3.670653686092302248e-01
6.330047675114330863e-01
-7.267599453182231883e-01
1.381192783854775230e-01
4.208944957619709104e-01
8.459751122461640904e-02
-6.725511297976827230e-03
7.443460093966390856e-01
1.383782709528306842e+00
-4.992795542934367337e-01
-2.335121403516640659e-02
-3.616894471641349251e-02
1.305761484648479298e+00
-2.959687549660234840e-01
2.663015691036210025e-02
1.353471408829197697e-01
9.660772495973704022e-01
-2.534538391858162654e-01
1.703957063759254376e-01
-4.252803341846925211e-01
1.085376453892952509e-01
-2.303780127718682569e-01
5.853267738979857082e-01
-1.471570286578633702e-01
-2.579005052816033539e-01
7.332606512382117137e-01
-4.625551030157538657e-01
-3.108256503629170941e-01
-2.756775689893785075e-01
1.112228563577549317e-01
-2.414899773484422696e-01
1.150591613555499437e+00
-4.626937602052444976e-01
-1.786001926534066253e-01
-1.247653776054056918e+00
-3.500208761312730843e-01
9.342962659702229722e-01
2.030679142907839407e-01
3.080161458580957246e-02
3.250172093967222953e-01
8.029616726211694089e-02
5.500735663689122479e-01
-2.835005314397650578e-01
7.629867030905032044e-01
4.605281375201284444e-01
8.201072749531487238e-01
5.016061826852771244e-01
-7.811601636008487226e-01
-3.587966001109417213e-01
-4.843542608126362170e-01
8.659769403633782447e-02
7.332694566564520455e-01
