4.715003450421423326e-01
-6.866010204052019894e-02
3.412104702057346117e-02
1.019972098380498515e+00
3.823290045883248611e-01
-2.249579533909747409e-01
-3.119272881936602237e-02
-1.283772884730035591e-01
-3.456620561745532560e-01
-7.631460720337682191e-02
5.211609867915308891e-01
1.877568633823110678e-01
-5.991783026890157293e-03
3.257474860570731545e-01
1.105006628543747649e-02
-3.130959855866700670e-01
3.845305204466221149e-01
-3.864535308737836461e-01
9.024423259222977278e-02
-1.274097553617248302e+00
-1.897211782501827815e-01
-6.145368187218775979e-01
7.919177986865393315e-01
3.176987243428611163e-01
-6.668297185254504211e-02
-4.949592523572977631e-01
-2.177813095375884245e-02
-5.201005645310242675e-01
9.585940238962887827e-01
1.150075961345909059e+00
5.446106951747858860e-01
3.198727018949464873e-01
-7.931219928406098296e-03
-2.711174234860592169e-01
2.654846315710978066e-01
5.467049198389903886e-01
6.598429982083492407e-01
-5.219139449514038631e-01
-5.718157348728938327e-01
9.889821256914896330e-02
5.884197074042736286e-01
7.016488091021311213e-01
-1.943646263776656335e-01
-5.798297424808309675e-01
9.476671302505003114e-01
7.677768847843360889e-02
-2.546375088881380755e-01
8.119129820389116015e-01
-4.871138172360076068e-02
1.139862397278429001e-01
-1.378941209209841867e+00
-2.246580012937634818e-01
-3.610576817781723236e-01
4.017966232634597179e-01
4.367598925818413913e-01
4.989428406417085737e-01
7.400277905364136544e-01
1.843781155629221069e-01
3.354237929456978518e-01
-9.171378827102631970e-01
-1.777056756622153733e-01
-1.393041709558989316e+00
2.912887652584385534e-01
2.253928792243820728e-02
2.044385777056354492e-01
-2.481674176903411744e-03
-4.681098484172337426e-01
3.437059692486393869e-01
3.902194202597941697e-01
1.116070442040067778e+00
-2.239216209260666002e-01
-3.106553578133092741e-01
-1.634635455264578374e-01
6.301545372648952315e-01
2.257151952401421913e-01
-1.116230978909317495e-01
-1.526179883386398206e-01
2.648489316693751761e-01
-4.995580480908783927e-01
2.147798766911894475e-01
