-9.709571868355483248e-01
-2.538889241870785352e-01
-1.158799696533662216e-01
-4.979526949853962936e-01
-4.864654921024494927e-01
2.375218851432958356e-01
-1.158133796918259795e-01
1.045025712501905235e-01
3.226691288225522758e-01
1.168728621002070589e-01
5.527169566779175369e-01
1.969168580485645137e-01
4.650672961372124825e-01
4.241708056877352417e-01
-8.648189210674123162e-01
3.768013285141955104e-02
-7.746447072755553442e-01
-5.214497072069065320e-01
-4.109153553794158698e-01
-2.515738468072651890e-01
2.945562099037659642e-01
-3.900651956237448093e-01
3.747292930466618044e-01
-7.944161126239986936e-01
1.567240364524996252e-02
1.318948809905682307e-01
5.722636617909885315e-01
-1.188446647025231395e-01
1.971127406336976584e-01
1.064853540828034184e+00
4.834124490207619140e-01
-3.191914246942173516e-01
1.776082291597629315e-01
-6.600118776621965999e-01
-3.124657080130692766e-01
-2.293978537215876634e-01
4.049074549587557137e-02
1.185070139034852948e-01
-8.887112071710490113e-01
-1.008922054097222576e+00
-5.541147785075990484e-01
6.955205271808110323e-01
4.401712877232449861e-01
8.493041151649183274e-01
-7.228955299735738693e-01
5.527814112832430959e-01
1.142479437896613409e-01
1.379479890448566115e+00
1.210887456243272126e-01
1.848464271464090869e-01
1.506560991689637419e+00
-1.483330823108220398e-01
-1.098094093010753280e-01
8.811340225298480711e-02
7.850351214373543218e-01
-2.444520343551056796e-01
-4.900510896766310798e-02
-2.415623119464600232e-01
-2.720134925644525636e-01
9.167321900460451145e-01
-4.154407788738733176e-01
-2.934906501322396832e-01
-5.031378711936139725e-01
-2.848153461318292390e-01
-2.950240899360228042e-01
-4.795726252102365805e-01
-7.312644430011256969e-01
3.304253354640531160e-01
-5.766469990103333387e-01
-1.541892365946790355e-01
-6.988550570509268756e-01
-6.216625512562845568e-01
-7.489043757052886718e-01
5.600559714970246850e-01
5.011749700857238699e-01
3.619727613506896757e-01
1.356242228044716724e-01
1.704589882287929625e-01
6.731799500734889641e-01
3.779905719067597203e-02
