-4.721734575067871864e-01
-9.330893477282171666e-01
-6.564781369952459034e-02
-1.614387925024769188e-01
-1.728454862605637715e-02
-1.982244970941337836e-01
2.408235880772123527e-01
-7.304274515527656719e-01
-8.339787839032267724e-01
9.082341301084483343e-01
-2.520547575045931632e-01
-6.364687601619288815e-01
-9.910922381809361692e-02
-6.002073162072046886e-01
-2.576963984462962709e-01
3.556233033672783206e-01
-2.140552255797332770e-01
-1.293940788485639093e-01
-7.260235868901607770e-01
-5.260356670715227168e-01
1.867068434621545758e-01
1.425438460503033744e-01
1.711592107587575906e-01
3.877962120187451456e-01
-5.760831650630221512e-01
-4.160626814747889202e-02
-1.530694683952753266e-01
8.419792516262278315e-02
8.029028344856899979e-01
-3.778950014622639575e-03
-3.197800987570370013e-01
9.846485966918211430e-02
6.931663004187396115e-01
-3.708048954225430238e-01
3.780319770916388267e-01
-3.728589196813200668e-01
9.906492136619027278e-02
6.087601967861675512e-01
2.037458644466240143e-01
-6.129934015450941853e-01
-1.875857083920517976e-02
-1.406913520070046442e+00
-1.974375773234214870e-01
3.179962102158028214e-01
1.013396196640981461e+00
-1.153758672531840501e-01
-2.437412288914837244e-01
-2.723170034791672078e-01
-1.056500866071028666e+00
5.787667932805117266e-01
2.578680823794800570e-01
-1.085693925819300576e+00
2.207481106248169456e-01
9.010763708282165663e-01
1.106116227469053359e-01
-1.675489511240868534e-01
3.217601006951589793e-01
-1.775502907634447236e-01
1.220803309430312567e+00
-3.964305382997409533e-01
2.051905927954111031e-01
-3.865012301032274000e-01
4.747413636504265733e-01
-1.096387401059450539e+00
4.193488844595919668e-02
-8.194847191432760303e-01
4.472131681160493866e-01
1.047771660238437375e-01
6.615487817689988392e-02
-2.500344335026047360e-02
1.693374804681953005e-01
6.146814324026435017e-01
1.253608634481918338e-01
5.683344576019920824e-01
-1.914111574233086643e-01
1.054844882616781943e-01
1.515126403964473512e-01
2.552758736849950472e-01
2.025336769344578680e-01
3.062726629314875826e-01
