3.281651111479378935e-01
6.393216542026447513e-01
3.127378148619363585e-01
2.243439028097942434e-01
-2.414206529742636831e-01
4.438018740247225424e-01
-3.028062158540911208e-01
3.624390927153957609e-01
-6.875020040876719807e-02
-7.986762353636311929e-01
-1.312995861478756243e-01
9.861720738483623627e-01
-2.957216509227430512e-01
1.044619032935112601e+00
1.286524281315818641e+00
-5.766621013308095289e-01
8.034602635087745304e-02
-1.992676544139507511e-01
2.151424060441904651e-02
-2.770755960539984103e-02
4.251956168777125677e-01
-1.964769579360444440e-01
-3.514288985280865640e-01
-1.120560322516610752e+00
-1.826945805246544541e-01
-3.890231168554776908e-01
7.506987856492829403e-01
4.544742088557606752e-01
-4.461363766717918455e-01
6.631761509611833194e-01
3.744246571793458100e-02
-4.279305243897674749e-01
2.908648355521950557e-02
-4.788792021877830152e-01
5.320226200991020615e-01
-4.049822016553690229e-01
3.921542265123491577e-01
7.013922934034888534e-01
1.796181152118635493e-01
2.975941673787563246e-02
-9.589479048986714049e-02
-2.092485019918669531e-01
2.291506125838533581e-01
-8.174737361067537789e-01
4.693961457346425004e-01
2.845876278769754464e-02
4.486783028150780339e-01
1.882027459082673271e-01
-1.381381961007126513e+00
-2.664089234522669658e-01
8.905163063829630854e-01
-6.126299094793219435e-01
-7.811155846963864224e-01
3.388064347730115333e-01
-3.334424560098198098e-01
2.357901708492940451e-01
3.797920790751387887e-01
-4.425785137232834954e-01
-2.179321351900505022e-01
3.110749083058733100e-01
9.649786025163669123e-01
-2.039156881749219496e-01
-4.135968744220170912e-01
3.823097355388958007e-01
-6.156045854552536500e-01
-2.464075146759895363e-01
7.207656986877242211e-01
2.583980602785135305e-01
9.079577395620828106e-01
-4.105034259785990680e-01
-3.596320274175568432e-01
4.599963655028468379e-01
-8.992971511561698161e-03
1.574248595124783656e-01
-1.223239492813038842e-01
1.331222913123900897e-01
-5.720107938360777800e-01
-2.821277442769062338e-01
-5.859158953103955625e-01
-2.888307185421116197e-01
