7.269129582774092047e-01
-7.796687766825759480e-01
4.895706152042128556e-01
3.352256217272277516e-01
-8.122341313248421235e-02
1.662940597696148659e-01
4.436049731563564413e-01
-1.857939462052137780e-01
3.670737538531561595e-01
-4.663848403206846682e-01
-3.711769098698716185e-01
-3.047103060525394591e-01
1.073922205462454760e-01
2.559587029276489956e-01
2.287875224615077419e-01
-6.107177352409567939e-02
1.949527322702721555e-01
-1.246245897014520265e+00
-5.887217578952685937e-01
-1.305626181073463954e+00
5.758976512417126603e-01
2.202187044483757961e-01
3.009607034448535945e-01
-1.452631755456135557e-02
-5.977129459332448658e-01
3.847472924896463420e-01
9.065063923828460268e-01
-9.173386911354399764e-01
8.400261967345015179e-01
-4.138321198704425496e-01
9.202790265048025331e-01
5.221163255157812433e-02
3.676277969280618563e-01
-3.144794619174361427e-01
-7.698638072341461303e-02
2.295255905771677318e-02
-1.693448833822192301e-01
-1.441520683840234462e-01
-9.468241698847552901e-02
-1.862605168054929927e-01
4.091827453355373345e-01
5.550465062555102191e-01
5.214555059708226858e-01
1.437891756087015527e-01
-2.056024857373531245e-01
9.957872721091471924e-01
-9.947781693260193681e-02
9.256685185436001051e-01
-1.419102469711497061e-01
1.272486312797190600e+00
-1.780093359618643289e-01
4.159551781263809422e-02
-5.910441303891699194e-01
-4.692573449903172933e-01
-4.725666382368475249e-01
4.642046385756726790e-01
5.984335195167477250e-01
-8.117472665164277013e-01
-3.305786912000381605e-02
-3.887428767724335210e-01
-1.546347644303391056e-01
2.988858722211956698e-01
4.081490970326716039e-01
-2.477069622507731550e-01
-1.040117862108453084e-01
5.218844465605674277e-01
7.645663818359378361e-01
-1.478600548931035430e+00
-1.645061775998060138e-01
-6.221194376552947602e-01
5.410292873756543663e-01
5.259455384518801901e-01
1.425782906927662574e-02
8.945237662947432833e-01
-1.842273650572222587e-01
8.210141672181608952e-01
2.996657823330073356e-01
3.914716994600788702e-01
1.505601713717022172e-01
-2.401980120982003530e-01
