-7.866505322964267855e-01
-5.646638416314819775e-01
7.595648819723288536e-01
-7.926632839153063825e-01
-4.590075732941917286e-01
2.055183838821410813e-01
-1.407738164421457328e-01
5.155548009044537139e-01
5.618510000017972184e-01
-1.624590920241237024e-01
1.002944261033937856e-01
1.575320644195446484e-01
3.527054141882373095e-01
3.524251985016599864e-01
-8.454832656987559814e-01
6.557280304803518589e-02
-1.107971656470025046e+00
4.805854441812862365e-02
-7.060801302745383090e-01
5.953769720566425006e-02
3.964526196506950040e-01
-6.573182512061702676e-01
4.810428983512598511e-01
-3.456051361703797453e-01
1.006928667159225910e-01
-2.295558710225252541e-02
5.525553403132910102e-01
-2.010718572186245556e-01
5.290916105937792935e-01
1.155930970388043821e+00
7.116893112324752524e-01
-3.533432420213284963e-01
2.217599411887685723e-01
-6.701733199689027254e-01
-9.697847943634827494e-01
-3.953664647607695315e-01
1.171952937063953371e-01
2.934402051739068984e-01
-1.070448668167371054e+00
-8.005506742002356235e-01
-7.875707883122856634e-01
5.247502038196709684e-01
4.749033951294132638e-01
-8.447841744495326877e-02
-8.453583369913766354e-01
1.029999236948624830e+00
1.174741983806086576e-01
8.649208865384466760e-02
1.392970173796725109e-01
-1.101607190076092646e-02
1.488763740099876998e+00
-2.357975907031648610e-01
1.157336006951977803e-01
1.390265525211195619e-01
8.545181988317198662e-01
-6.744423366453100588e-01
7.868543916236521440e-02
-5.238288018803737012e-02
-5.527591158499127744e-01
1.165108010771370051e+00
-6.468738286921031921e-01
-8.271488722614593891e-01
-2.500132124339020101e-01
3.015289623151312659e-02
-7.357165974387128715e-01
-5.646039680487752177e-01
-5.010726597689597606e-01
4.960091832664572098e-01
-3.766987191184490436e-01
-3.275542274953893163e-01
-5.421501778659992832e-01
-2.732470578592770538e-01
-5.918767351844631541e-01
5.493012881972421102e-01
4.330355457218238446e-01
-1.166582372743079077e-01
4.247024509520101743e-02
1.919904682367584159e-01
5.107800667892050672e-01
-3.285020160301255904e-02
