5.295794100004397320e-01
-7.146937484113117245e-01
3.899834200611280166e-01
3.023701601344304102e-01
-2.308553971007782368e-01
4.750602792392303875e-01
8.428286062908723064e-01
1.071625646293775380e-01
6.554323542376175871e-01
-5.438797749214645538e-01
-7.482624736471643612e-02
3.152366790764984938e-01
2.934576641291529731e-01
2.804742710047535281e-01
-2.912184211373174403e-01
-3.427967126604360149e-02
2.757421923234593120e-01
-9.578294063783023837e-01
-5.028427237238437542e-01
-5.480598248829946506e-01
8.316320945368563811e-01
9.332367398994782792e-02
2.230862408060502178e-02
1.024425877342290681e-01
-3.138586300374949234e-01
5.988989623460427847e-01
1.872962717664764742e+00
-9.175661244544495165e-01
7.010040892898666831e-02
-4.575263993889386871e-01
1.033242084677545858e+00
2.618060519578884193e-01
3.448699432474249815e-01
-1.396936129487381384e-01
-6.513898038932314227e-01
-9.981033471562250625e-02
-8.106190222389662858e-02
-3.557090572958589436e-01
-3.329006070154664210e-01
-1.629679555316249084e-01
2.189145623564603405e-02
6.956985442099785644e-01
-6.328271803596606793e-01
-1.557300046900434998e-01
-2.095279606478568091e-01
1.071780284662206872e+00
-1.965836933273035769e-01
7.086775651445064161e-01
-3.152356713329110272e-01
1.165949412186288114e+00
3.615050527917362810e-02
1.924579022154512126e-02
-6.460100106685220389e-01
-3.648260453220050770e-01
-1.472068381819630900e-01
1.584616411200620023e-01
8.368854185655694167e-01
-4.047473763893794096e-01
3.262103137172662204e-01
-3.230174369039641724e-01
5.384094827568297603e-03
-8.205059967259233089e-02
3.763281816030161764e-01
1.595694770921338712e-01
4.030365265467482361e-02
1.752370548253347482e-01
3.147736558505116466e-01
-1.491432961541631297e+00
-2.626506251876103426e-01
-7.477173719251994921e-01
5.922218313126366152e-01
6.226189440502929440e-01
1.025922673252160355e-01
1.225112822868265949e+00
-1.446497538467349520e-01
6.409460809282453431e-01
2.302304207902731992e-01
3.035746371497274332e-01
2.543126829488271401e-01
-6.364317857491250674e-01
