2.433936655196731746e-01
1.208082847371285684e-01
2.768524670970554796e-03
5.434769207784400091e-01
1.857007275011304803e-02
-3.426269058831221681e-01
6.286550788537931256e-02
-2.624514000230236677e-02
-2.526413538456864227e-01
-1.135830235650625852e-01
5.890591522885176845e-01
1.984826343827524042e-03
-5.934867796468884515e-02
4.512745890382210412e-01
1.245332074819467116e-01
-1.651523629513526603e-02
6.949209201643392619e-01
1.811828473435298514e-01
1.583406005769925629e-01
-1.644080215785790999e+00
-2.519708790335249970e-01
-4.596747567134685797e-01
3.426111021916200539e-01
2.145929828610874945e-01
-2.780232818872199196e-01
-4.966727389769602374e-01
-3.850535301647167730e-02
-3.767296158636441739e-01
6.426306703396369446e-01
9.837158273634800665e-01
4.253373581894013267e-01
3.125493890622573767e-01
-1.132779697703143740e-01
-2.792290067398557896e-01
-4.553890135226434932e-01
7.575330352636313602e-01
5.005757982535257167e-01
-4.799937993659042501e-01
-7.464723018270562616e-01
1.382319395952244512e-01
8.910833294701725471e-01
5.164953233320486170e-01
-3.702903192797473153e-01
-2.174364709082483027e-01
8.549609247297235148e-01
-5.000532719260977754e-02
-9.846840261286748941e-02
7.090705557470352582e-01
-2.811707077467938132e-01
3.405933511948450870e-02
-1.030124336393649420e+00
-1.962207602976100418e-01
-3.426570566609249413e-01
3.533578220205759179e-01
3.682104244069787646e-01
6.906575575534412703e-01
4.074425211418711279e-01
2.555420755339193328e-01
1.507450204892961665e-01
-8.078223007408280587e-01
-4.707808710659906470e-01
-9.051381940086813405e-01
3.156570979916615838e-01
9.174293262916712044e-02
6.322480135488608988e-02
-1.567468437085983712e-02
-3.936771127178641527e-01
4.873155250400637017e-01
6.744858014010003400e-01
6.902789214470228529e-01
-2.524706883069646191e-01
5.751472625055165100e-02
-2.250209853472598664e-01
5.958550562347059154e-01
4.063172222277042223e-02
-3.300807934212019595e-02
-1.499204519982441086e-01
1.608952134310651649e-01
-4.788378641388154611e-01
1.311500448862093771e-01
