-1.794583255646263753e-01
-6.694468994413533824e-01
1.078232526521115009e+00
6.723365499449310279e-02
1.054867159762918477e-02
2.247631633256234884e-01
5.803264522479131826e-03
-2.966679995731958397e-01
-3.731679598217518129e-02
4.590398812018515740e-01
2.397890031148016410e-01
-1.667258041677998348e-01
-9.567931243188696477e-01
5.428982945269281712e-01
7.188067887539553169e-01
6.263010669248398887e-01
-5.170424560909612222e-01
-2.739938261249169615e-01
1.697720511714812669e-02
-2.178179334434658387e-01
-3.009123662341319227e-01
-4.237311289335056186e-01
-8.879053743903528306e-02
-2.652195046231828335e-01
7.531062362075156003e-01
-4.578218666516545993e-02
3.433533070692953437e-01
-2.418929501629371592e-02
4.035546297331081833e-01
3.479254178936803110e-01
-1.083992636000540577e-01
-3.282262443871081237e-01
5.774773239656264545e-01
2.173207216371298434e-01
-9.497855859966720937e-02
-4.306481805278331576e-01
-1.191864481121774011e+00
-6.783061279524875697e-01
4.778414926060219753e-02
-6.187477042446533071e-01
-1.045687055991772141e+00
-7.641249943337206085e-01
5.891261266641018707e-02
5.192122783794420049e-02
2.975385116277617370e-01
-1.244179181634426229e-01
3.959250889956278385e-01
-2.687204691115571698e-01
5.311339940279267147e-01
-1.454738048636190773e-01
-3.164596923211180357e-01
-4.410990955142307310e-03
6.972299100118842241e-02
-5.489544680024144307e-01
5.656558626594832689e-02
2.282567292268991854e-01
-1.662627329930714548e-02
-3.431731416791413691e-01
-4.865333488123004813e-01
-2.924100918201522625e-01
-6.126174741299327264e-01
2.680607965887447097e-01
2.929417865549681088e-01
4.006306819835817046e-01
1.150664444028567379e+00
-3.120092414633959810e-01
2.674385905339354136e-02
-4.097716749502249844e-01
3.647500828398842487e-01
-7.964182697170162362e-01
