-2.298879673159897052e-01
6.238858178851108827e-02
2.662456940420288021e-01
-6.911784539023448914e-01
-5.222816766450358861e-01
2.533571473817853859e-01
6.350373003959951523e-01
-4.096890728069187970e-01
2.865745967739641298e-01
-4.220286221922792125e-02
-1.046061034680428214e+00
-3.721762803823823185e-01
6.503016682289330941e-02
1.123171378800847053e+00
-6.697575474457164724e-01
3.424963634175450800e-01
-5.309072337498470517e-01
6.659057999568330777e-01
-5.912381765216374596e-01
-2.821107335413919892e-01
1.087519320451135973e+00
7.040053007409814434e-01
-1.285858149039842413e+00
5.962366528176420433e-01
-1.690356824958735571e-01
6.046382628734817688e-01
-1.515596229489533583e-02
-1.480698110173459259e-01
7.859326279349001521e-01
-5.086541198707725808e-01
-5.707538492218567905e-01
1.520372094173289002e+00
2.284705076765309040e-01
3.385767748621330009e-01
-4.367698756927910209e-01
2.741255088918806981e-01
-6.640235947252657311e-01
-8.118234559706124509e-01
-1.209035903782011756e+00
-9.780453076673573110e-02
-1.947509292942359860e-01
9.367919827752572148e-01
-2.457260921866218362e-01
-8.161375417296209411e-01
-5.189037930426794176e-01
-1.170433163571428792e-01
5.064991520239749967e-01
-1.284996196813235958e+00
5.091457396073071351e-01
5.148087258183471626e-02
-3.605668022363748282e-01
4.988548467549543397e-01
-4.957825946565362456e-03
-2.313586218591476285e-01
-1.515705699365504922e-01
-1.452245544301561386e-02
7.363051006238577889e-01
3.996817254452170176e-02
-1.672626345408356752e-02
-3.625682695999297156e-01
2.137692550207397901e-01
-3.537581811787021691e-02
1.368796253611615832e+00
3.426355561706264652e-01
-1.424363217655713054e-01
-1.932399380246330178e-01
-3.104819669069278087e-01
1.218767436584065472e-01
-4.905726646457275741e-03
1.008220191322591885e-01
-2.084471303868737913e-01
3.272905929124805824e-01
-1.596663596998409984e-01
7.976691001471325482e-02
-6.226020833283111289e-01
7.083775695224608926e-01
2.207779688820477038e-01
1.085528054317480839e-01
4.006461835064205057e-01
-1.497928961418376170e+00
