-4.728281810769616178e-02
5.943506187183339451e-01
6.974937298528611773e-01
1.117624402640869263e+00
-9.936755806450013884e-01
1.486972677568367263e-01
4.474125962445130167e-02
1.705570231352442345e-01
-1.937223381790727172e+00
-2.682559463226001917e-01
-5.437115792653873791e-02
3.335213384837026340e-01
-6.947526028227420936e-01
-1.225310936264271400e-01
-6.737796842620441540e-01
2.743680718335023139e-01
2.210335790121871202e-01
-3.756907764549824447e-01
8.570311196940003651e-01
5.865362549916015578e-01
-4.448513688540258193e-01
-2.905254203818997127e-01
2.447434069962785008e-01
-5.132852844001277726e-01
3.752011199520502438e-02
7.498806069094348103e-01
1.463632215855174279e-01
4.547290480817820502e-01
-4.187322585197214009e-01
-7.332934910292348007e-01
1.001571657475359256e+00
-3.242451158066999017e-01
5.360976608511843766e-01
-3.283144256173949893e-01
-4.389515325187126615e-01
-7.422815701776752650e-01
-9.431785603354886360e-01
5.092478228188879186e-01
-7.080511652646499510e-01
4.894916939882891505e-02
-3.927774936140449036e-02
-1.515525323334324936e-01
7.387427254312187719e-01
5.610997974576296121e-01
-1.225024279503861835e-01
-1.372348656044828363e-01
5.031111981211355832e-01
-3.631880305403123455e-01
-4.421108377494484820e-01
-4.424448563361532694e-01
-2.666105367733473952e-01
1.094245176223595628e+00
-4.976325543952464514e-02
-2.688399130771869094e-01
-4.680249366197692940e-01
-7.680211562080068166e-01
3.722360838565216268e-01
-1.688178684150488107e-01
5.158311258625101203e-01
4.243948658527840756e-01
4.935038540257384865e-01
3.830271132438431425e-01
1.513857975624854912e-02
-4.898776252909016748e-01
5.930496643645555288e-01
6.093379733346396820e-01
-1.066005313323493964e-01
-8.925837917821964618e-02
2.027781844785045973e-01
-2.242920155959291506e-01
2.930658618373578883e-01
-5.133747867365615614e-01
2.812403053635167960e-01
6.906110778548955054e-01
1.470578754735742955e-01
-1.086299897505960121e-02
-1.261372218885963015e-01
-1.490752654160514834e-01
3.716812782564245521e-01
-4.838791951417765747e-01
2.124599875779080160e-01
-1.746661842091458972e-01
7.003478755746304074e-01
-9.930658824524452033e-01
1.043432360972284256e-01
-2.321861676687506648e-01
7.476379286043973726e-01
2.955722156766835695e-01
-4.864651713190688009e-01
7.877388649851468916e-02
4.700637961701069623e-01
-1.488115394404503355e-01
4.613989025869091876e-01
-6.950109563735697160e-02
-4.069988283920565608e-02
-7.560104253916845041e-01
4.366484829915568966e-01
2.715565800061165991e-01
-3.284878191126792135e-01
-1.562143244986217816e+00
6.702320727848464221e-01
7.640069298700906675e-01
2.024750068196355945e-01
4.353245368161640094e-01
6.646806178315507463e-01
-1.410883535397415289e-01
-3.526116103811996472e-01
7.016592750692906000e-01
7.641563858097616402e-02
4.967628389124171262e-01
1.123626698443706828e-01
9.401433747132009744e-01
9.562320240625497014e-01
-4.404191886136843426e-02
-3.708689184421428142e-01
2.607111387267559421e-01
-4.265760013285359586e-01
-6.762108368230780320e-01
-7.986889243192851762e-02
-6.650796356255297415e-01
1.227338872965392902e+00
4.037725438255620469e-01
8.735452678101416346e-01
-1.358680940851803021e-02
5.380543952331233726e-01
-3.226573276520970368e-01
3.701896954056315137e-01
-5.138529064239836242e-01
1.954858365828822664e-01
-2.683566687055138344e-01
-2.571572131492494973e-01
2.397155023835711996e-02
5.789222452360105464e-01
1.009139627924632077e+00
-4.365234978533789612e-01
1.909148059526189212e-01
-1.746211652038451856e-01
5.126615224696454143e-02
-7.326275271503827069e-01
1.120571454838902303e+00
7.033049397024826455e-02
3.071883089439504944e-01
1.121022245677634865e+00
3.939774519813097897e-01
