-4.073628639001469764e-01
2.837641166521577551e-02
-1.504499983593598378e+00
-6.906329554622765432e-01
2.433897675940978333e-01
3.627633517288820220e-01
-1.382505936286999026e-01
1.367999625909737671e-01
8.832276791123891968e-01
-2.493507032186609018e-01
-2.870364566352522351e-01
1.618556228658368790e-01
2.290273899461634510e-01
3.859001628360795300e-01
2.499579707857907673e-01
-3.205909198865625198e-01
-3.610789813448085361e-01
-1.901766011296662784e-02
-7.201213198368477952e-01
1.047806066397077018e-01
8.428483895724558916e-02
1.495448923590892709e-01
2.430732841165526570e-01
-5.818182215356721976e-01
-3.692566345182683452e-01
-6.934514408134000440e-01
-7.881543426742852743e-02
-3.884908355636908228e-02
-5.708522666043757132e-01
-7.709275601546103363e-02
5.637912311573730628e-01
-5.339226924389262052e-01
-1.038737515108591580e+00
-5.960810291122181637e-01
2.844404974558954469e-01
-4.047709546468299946e-01
-3.930607431607052171e-01
-7.539495556706535817e-01
-7.557008206468577294e-01
6.692333907421338379e-01
1.265237891209017640e+00
2.737538621843501607e-01
9.155692827438388637e-02
-5.094038453812235190e-01
-8.070761611141613612e-01
-1.662064053513573891e-01
6.251038560082017304e-02
-6.764692037208608344e-01
1.489918782087251703e-01
2.922232581150761010e-01
5.065053885629959840e-01
9.990837907353840308e-02
-3.758520222384996723e-01
-3.934082380006876378e-01
2.753386813950446377e-01
-1.435983538953856074e-02
5.574348501201762396e-01
-3.060477707705676620e-01
-1.664163156897598972e-01
7.940704452100475486e-01
2.636601757611828356e-02
-4.716614836845954284e-01
-5.450762086572918941e-01
1.207575286066505243e-01
-3.223859525671490811e-01
-1.216441564479364024e+00
-4.454122938591243419e-01
9.350261847640400914e-02
-3.560873044760523021e-01
-3.470162505776828721e-01
-6.051851659118329119e-01
3.767867330587326702e-01
-1.205131375577579156e-01
4.305759956970023339e-01
4.283234045263270562e-02
6.356478855646295612e-02
5.308669427953720266e-02
9.524888328693392747e-02
-4.964885359361849437e-02
3.081621699911779033e-01
