2.769532770545385936e-01
-8.516911468607452074e-02
8.026673342032510927e-01
3.209996575254719930e-01
2.629370529206272455e-01
8.812471517518377651e-02
-1.202906273757948646e-01
6.607384356010785886e-01
1.986263460366855249e-01
-3.806240352604616239e-01
1.813983004491266371e+00
1.558963130260068997e-01
2.908323046101334297e-01
-7.795662149694492227e-01
2.441293452519384954e-01
-8.001578789452089280e-02
-1.507703476707614454e-01
-1.149061114293210284e-01
-3.363178233458177790e-02
1.018816018447681326e+00
1.216862221358618434e+00
1.015554222394510209e+00
-2.479230118223260115e-01
3.047124065158431927e-01
-1.052372846232374759e-01
1.781445697790034477e-01
2.966738397624498758e-01
1.696310929817189672e-01
5.382180231766227063e-01
6.989128598035023732e-01
5.789124979980586616e-01
4.652451187379458286e-01
7.158399575935958659e-02
-2.897975426308659896e-01
-3.364061286809919560e-01
5.026574012037315908e-01
-3.357360113812027924e-01
1.467117727597613053e+00
-5.022983985139545249e-01
-1.743107243474786294e-01
-5.278426523151457106e-01
4.727513008362421720e-01
2.193711444672272748e-01
1.129025588555718329e+00
-5.196969226800687292e-01
-1.076923990851894469e-01
-4.269625137984307539e-01
1.373588043633629519e-01
-2.835871003184772254e-01
-1.170507107873018926e-01
5.793409762977141941e-02
1.501678841395666097e-01
-1.992377687300572742e-01
3.338170337032663193e-01
-8.509437893009417220e-01
1.634320719817869971e-01
5.427999362401891847e-01
-1.011332604988025297e-01
5.495549213479437867e-02
4.431138667335690062e-01
9.228321674729408897e-02
-1.109013269223611209e+00
6.197890844663730414e-01
-9.962517367977138938e-02
-2.315893325100600031e-01
-5.418489950040350500e-03
3.768364263270052028e-01
8.185289697046695123e-02
-1.166746718884959927e-01
-8.139307633104631012e-01
-2.616611532150722730e-01
-7.208944704688913241e-03
-4.237999857374150636e-01
6.908641830043508181e-01
-7.252262350802513025e-02
1.308561655591387041e-01
-1.013024710197101275e-01
2.928099634868936985e-01
1.624144806956218656e-01
2.305073206883478387e-01
