7.299249348144720706e-01
6.850217069433214290e-01
2.985044266923636558e-01
-3.249771922396770263e-01
-8.742142313546004129e-01
-1.512261842305043236e-01
-6.180190038181176959e-01
4.810750955894738112e-01
-4.636391351751315559e-01
-4.794720074945452160e-01
1.210000320745442948e-01
3.330925974582590321e-01
-8.416463481890296139e-01
-1.013084891728315506e+00
-1.496882649619830086e-01
6.725671646218953637e-01
2.465240814652714940e-01
-3.275442382094995164e-02
-1.548216319101962668e-01
4.131965813010015087e-01
-5.681595046071376276e-02
-1.520460228510324807e+00
-2.310727985704871812e-01
-7.760230823045157766e-01
2.629620779160773969e-01
6.493264120542192597e-01
1.122603308960027357e-01
1.586171270377237097e-01
4.660672275702976153e-02
1.796272327820834791e-01
9.610067362601040220e-01
4.155423156720566835e-02
-6.413533028196248820e-01
-2.135883552096037585e-01
-8.444125576374912345e-01
-2.173644396712665350e-01
-1.239347324551834273e+00
-2.601365592302842811e-01
-1.284867429977512465e+00
3.074236558831028310e-01
-1.025688606159798510e+00
-2.553931166803690214e-02
5.201235886428923205e-01
4.852810142608428023e-01
3.036577710073362635e-01
-7.402408878492496846e-01
5.984706348370599782e-01
-4.745150737697558796e-01
-9.721781748316807859e-01
-9.206694815370992657e-01
3.302092069207897551e-01
5.430458541777061221e-01
4.071367667868561191e-02
-3.736146856504035663e-01
-5.805858540724757599e-01
-3.157715505068522388e-01
-4.596073804982414024e-01
-2.004092974248407599e-01
-1.277014246327441427e-01
5.737606694921021377e-01
4.874918581152409836e-01
4.707780518938224912e-01
-6.317586906413985570e-03
2.177544500879489697e-01
-3.092982750066826658e-01
1.919524602490214615e-01
-4.128323801911457647e-01
7.516215175196075404e-02
7.188732939798548882e-01
9.343840328262488226e-01
9.370141923734053302e-01
-2.618816080193112628e-01
-2.288389820044536560e-01
6.302401123976233421e-01
5.331158429526333675e-01
3.003512536065150451e-01
4.036318788901722132e-01
-4.517139579739881672e-02
5.198915960384713902e-02
2.481774674768496836e-01
1.654554523667584043e-02
-2.570533590545555636e-01
3.137182335230461749e-01
-6.444140174105990049e-01
8.670882164342990084e-01
-1.067936781450414541e-01
8.476868407045843323e-01
8.003633334804930444e-01
-5.232934723616941008e-01
-2.304046676138566396e-01
3.114064218033634202e-01
1.462538428453156736e-01
7.737174313228321054e-01
-6.734357321669549590e-01
9.160556270670711099e-02
-1.456045334347173537e+00
-5.273569952072197919e-01
4.329644850252899468e-01
-3.972178662505371216e-01
2.053066378575681972e-01
8.542959293770666651e-01
3.207821556850096734e-01
-3.790659799434310528e-01
-4.148948352446865107e-01
1.660703904440166689e-01
-4.116016300306789000e-01
1.522951315432759245e-01
6.494502651581413044e-02
-1.734629350286672200e-01
-1.633093427060969827e-01
1.347048052616680869e-01
1.376909373894377842e+00
5.496724998484208147e-01
-8.685690165229638104e-01
-3.316470097253422233e-01
1.263968350321573730e-01
1.766889691377213079e-03
-6.095984938047033230e-01
-1.014986365791298084e+00
-8.013168695495832550e-01
1.384751388126890692e+00
-1.999693866191930014e-01
1.195082222936543204e-01
5.120414679149789539e-01
-3.937451855721857408e-01
3.791966123066115024e-02
-2.084336515459742911e-01
-2.700450734975879952e-01
6.734321945461491099e-01
-2.212243351005255265e-02
4.560639930839344713e-01
-1.368830010109656770e-01
2.014154553834222316e-01
2.856895078070286198e-01
-2.336734020595147843e-02
3.580359669481561480e-02
8.472420046859255316e-02
-1.010164233667798506e-02
-7.078849666355322423e-01
1.206739925884217968e+00
2.761860946832482844e-01
2.820957979329445919e-01
-6.432120790102763275e-02
5.065442505527457673e-01
