6.119075017800926775e-01
3.952297215602311176e-01
1.339193764512149054e-01
-3.294833791529420686e-01
-1.594573675285184455e+00
-1.132058090996224564e+00
-8.690143680895341394e-01
-1.858129798666957599e-01
5.145275000557291561e-02
-5.399211479885552833e-01
3.850422007309855510e-01
-6.344017107071633355e-01
-1.151953792118398379e-01
8.252598680949971288e-02
-1.129920381892079162e-01
3.241624244857665982e-01
9.126699876777646381e-01
-4.855624059552304250e-01
4.143514820408797372e-02
9.910390843448281251e-01
-6.454046814146807698e-01
-1.058825518795984966e+00
-7.322365608732857023e-01
6.282397641922191078e-02
-1.125078363975427487e-01
-4.912885837904468200e-02
-7.784142424278663874e-01
6.393705366513974253e-01
-2.299284502407427655e-01
6.958465381503609049e-01
-2.176310033724174198e-01
3.253967460432810599e-01
7.011423793951997441e-01
-9.302700113353193356e-02
-7.898759693466808063e-01
-5.063356946786876644e-01
-6.904095983769479306e-01
2.093037947125434284e-01
1.518319725295916856e-01
-5.590807468259485491e-01
-2.871161598537750881e-01
-1.486593220743148147e-01
1.017152912993206093e-01
9.388116150365864720e-02
-1.070425378513990999e+00
7.352113049588981930e-02
6.826159829616919306e-02
9.198236297639386660e-02
2.818803974121140143e-01
-1.036142760554644993e-01
2.059910497013510700e-01
-2.749677767279226082e-01
3.236066800709400670e-01
-3.881472989588157230e-01
2.445502711741570911e-01
-1.419149111881123915e-01
6.360519838786646285e-04
-8.760485683418611780e-02
1.473572327711810126e-01
-6.291743913334160720e-02
-2.708104203672764276e-01
3.856646274393181195e-01
4.844786484498663226e-01
2.696096293363686724e-01
-5.654551978001050028e-01
-6.274163529585237153e-01
7.654359559515090672e-02
-4.066549290216474599e-01
-1.282234294601689029e-01
1.582095920946771650e-01
