-8.321679171229279248e-01
5.341363160507845986e-01
-6.297860504539067872e-01
5.226102254009178383e-01
-7.444971646616541650e-01
-7.947614592056412297e-02
-8.574241277670098249e-01
-6.755807492892118571e-02
-9.884344425202719053e-01
-5.650336565968079316e-01
-4.378866729690791271e-01
2.532767693434891942e-01
-3.540379469101426757e-01
-2.539735159807704479e-01
-7.169260972586459779e-01
4.222575451948625824e-01
4.313246525906207496e-01
4.596924676067727367e-01
2.082137433077524691e-01
7.597648409930229940e-02
1.998596827697828870e-01
-4.885343339137594443e-01
-3.472509209608428127e-01
-1.164351331288913327e+00
-4.008743605027297041e-02
2.352833697630445919e-01
-3.686507168267877388e-03
-4.769080976115360193e-01
-1.845829812363221356e-01
-2.284893752960950597e-01
3.940481464903942133e-01
-9.339415686910436110e-01
-8.573014356264913038e-02
1.028258556677646568e-01
-4.212149544515766952e-01
-7.272691634311098108e-01
-2.666679535642006438e-01
9.862862260457451458e-02
-1.712620253052362873e+00
-6.051868106014212101e-01
-1.124142318129011109e-01
7.491729141252864710e-02
2.525010067976285466e-03
6.951583849497728895e-01
1.992728284869860200e-02
-1.342938113961625324e-02
7.649278095988975013e-01
4.545508936797402755e-01
-1.608197506613639582e+00
3.249893811527236887e-01
3.379729908530020310e-01
2.122226143279724031e-01
4.187781213132338309e-01
3.202879125269227356e-01
1.801109587454130245e-01
2.170471400349835989e-01
6.531060622021581108e-02
5.944291521653070065e-01
3.395383619315870405e-01
5.005443693522872994e-01
-3.076462146870628800e-03
1.058769529757195071e+00
3.176823400361405980e-03
-1.201576644810364303e-01
4.369204986627214793e-01
5.082334287436356401e-01
-7.634564402879000511e-01
-2.612256811853555516e-02
6.304731795284403972e-01
1.186183354174306093e+00
1.040818257140387199e-01
-5.107673582670448909e-01
8.407676979026810354e-04
5.183471903669355507e-01
6.828206310561378833e-01
1.952090727144363269e-01
-2.129176136084540982e-01
7.941969304313541977e-01
6.460823218248860911e-03
-5.784034883198210242e-01
2.228896579746368900e-01
-8.856337164292232833e-01
8.649597117759443010e-02
-4.247091254245492498e-01
3.344420306945994903e-01
-3.087666412385327575e-01
2.825627380156907620e-01
2.167431789708762491e-02
-5.214625567943895756e-01
-1.028452034405801796e-01
1.559298573702336821e-01
3.024928869638211504e-01
8.622752050216692110e-01
-1.937569071021458533e-01
5.922888957262567589e-01
-5.230891443264803486e-01
-2.943323368841659349e-01
1.669799143819232223e-01
2.994147581861306140e-02
-7.463748168854401621e-01
8.863181847838657035e-01
1.050589933898691486e+00
-2.811789487401582521e-01
7.939482623495548452e-01
5.114853418113212147e-01
-4.065344996722918269e-01
2.925169901528707483e-01
8.550705745112587852e-01
9.577668498655250717e-02
2.872530214925676506e-01
7.338820491299478110e-01
-1.606073443856719241e-01
4.701496638965373398e-01
1.471422083373810086e-01
-3.638747450797633065e-01
-1.442299704589878606e-01
-2.576813944973389559e-01
-2.912296512267582016e-01
5.426047130781337380e-01
-8.904801470831674726e-01
2.075002503453867164e-01
6.035822808947921558e-01
1.866048802927631756e-01
3.248904782753252451e-01
4.283299890689976075e-01
3.765279090850703336e-01
-3.726986347249851561e-01
4.712515259381638844e-02
4.274250840209739000e-01
4.757340045291862107e-02
1.928678196673664913e-01
3.273407905356855441e-01
-3.025044437516881679e-01
7.623250872826424773e-01
-4.165689837573188226e-01
3.207051900702374558e-01
-2.499885383241905457e-01
2.851152336655081165e-01
-1.245163510069579926e+00
1.435755626329239476e+00
1.385480783836412211e-01
1.665264657281994298e-01
-9.904150113508225495e-02
2.822117116063961317e-01
